0.000811308007946031
-0.696111800373361,0.905310929224846,0.427590638802407,0.0114585367955359,-0.656373840144953,-0.766993821070549,-0.76435844833955,-0.0406255930960809,0.872498849004444,-0.796335223723565,0.424250689728444,-0.54134688672417,0.166934665697232,0.796050482051537,0.178950839297936,0.63113542654443,-0.770242016483903,-0.359795861499473,-0.778940677642822,-0.722705138340343,0.408201890573155,0.0332387560459482,0.862350928172718,0.118021858349193,-0.0943800210952759,-0.0762995481491089,-0.202350258827209,-0.509164810180664,-0.383969187736511,-0.84798002243042,-0.48835027217865,-0.417084574699402,0.282115668058395,0.17874276638031,-0.524132966995239,-0.218942046165466,0.665258696003211,0.402839482436357,-0.120928793539824,0.468687237015723,-0.311551791181463,-0.257932156930147,0.163808140900591,-0.771940258169584,0.66888377366025,0.671825481013054,-0.218510521137173,0.205472138548308,-0.121453077560426,0.603612096642303,-0.340293614531708,0.582561004736635,0.249659036564892,-0.860937507485199,0.0732113122940063,-0.93274450302124,0.716708183288574,0.679803609848022,0.272700756788254,0.891812562942505,-0.794471586407241,0.828979462882847,0.810664725329596,0.250530918269512,0.590726852416992,0.835393905639648,0.0239796620658742,0.159010163907512,-0.224161243023642,0.257100790739059,0.160156094573358,0.507425358500079,-0.0630658319870612,-0.547692122119948,-0.300982333501526,-0.0675328969955444,0.546581983566284,0.426462017757212,-0.431552305028853,-0.320513529516688,-0.167202591896057,-0.713853594065354,
